{"hidden_layer": {"weights": [[0.7734389476730567, 0.20972304962580515, -0.2928543465734884, -1.2270014749835279, 1.522277404588007, -0.5814240828063684], [0.3503036822563991, 0.23317270088702438, 0.57923953593209, 1.468064436135207, -0.0332295012094272, -1.2896118755127801], [-0.9277084206300361, 0.2815521325034835, 0.7890939170467925, 1.1412433074168353, -2.1073375232568132, -1.42943754012383], [0.7633444072552232, -0.5541939465154233, 0.2752912845823273, -0.24325161695425834, 1.2750665546641964, -0.36939668685192734], [-5.057574611125368, -0.02301864490877561, -0.4866936770291034, -0.4417435543931716, 0.5115910060060742, -2.2505801572370663], [-2.1353424664101577, -1.5660826260734815, -1.4911940147278104, -2.455603673604762, -0.7782574320533029, -3.3906842984763435], [0.7744653485302686, 0.1249620185376576, -0.8706103500651927, 0.2474437152880974, -4.075046103684217, -2.7908124427705827], [5.440400640938676, -0.5124907005197014, -0.7505231060917489, -1.1299534069675559, -0.4544893779682485, -2.352687877500262]], "biases": [[-1.262529033619528, 0.037656539446548634, -0.6393397537947487, -0.1783441191336259, -0.5730212453856253, 0.4248805098977744]]}, "output_layer": {"weights": [[4.6028608545917935], [-1.3164864676785633], [-1.399939639464304], [-2.3373295124701188], [-3.4510738653017543], [-3.8175458148256163]], "biases": [[0.7042409988277558]]}, "activation_function": "Sigmoid"}