{"hidden_layer": {"weights": [[0.6781464202614871, 0.1397205044349705, -0.2452732264934309, -1.02022793544869, 1.3512662031465796, -0.6311045940932659], [0.3541424924240372, 0.18981234987824067, 0.5452974874036831, 1.4059924999127804, 0.08355044838031593, -1.2920839317358532], [-0.8922426934047192, 0.2919780067045752, 0.7296649985069117, 0.9477194873540481, -1.8168761693504019, -1.4469530933829606], [0.7798971841036405, -0.4547333373114266, 0.2748539319704467, -0.23600621042248995, 1.1747621287637908, -0.42465844797528624], [-4.967363838323192, 0.010407967841199024, -0.4298408259224882, -0.3154989830807421, 0.4569070043716811, -2.25000749818426], [-2.0507434403212326, -1.5541278324916734, -1.4446052313681803, -2.354116860719343, -0.8788918751890888, -3.263973727259532], [0.774322774254368, -0.028849148033646733, -0.9246447399178581, 0.03589106931273482, -3.849193608493569, -2.8668518357708708], [5.433972314194354, -0.6083150185322362, -0.7800821943180041, -1.1319847585303786, -0.6709388949516641, -2.412768196756211]], "biases": [[-1.3372401288447149, -0.01708299202047143, -0.5917895679336338, -0.041988851713758005, -0.5740969491743111, 0.4185228872636057]]}, "output_layer": {"weights": [[4.558171761253777], [-1.250310834371528], [-1.3977829569619047], [-2.1431129137883502], [-3.248376292543944], [-3.820946516971013]], "biases": [[0.6618470799601208]]}, "activation_function": "Sigmoid"}