{"hidden_layer": {"weights": [[0.8447616516182249, 0.31088519702053646, -0.2693450823415356, -0.9618682593327991, 1.4014843518929143, -0.6472928863465253], [0.3678035355578358, 0.17081165162683978, 0.5806148414115787, 1.3029097398796365, 0.10823574186860879, -1.2705624487551948], [-0.8797080460128958, 0.19258757976922414, 0.8346295987350008, 0.9806676965242946, -2.0365950642178703, -1.4277141296745302], [0.756899414039951, -0.5509385585199361, 0.3338138402290824, -0.23268937775237983, 1.352991201286096, -0.3520996131124126], [-4.804530056171575, -0.07105017540826704, -0.6062888898985683, -0.5527969580196241, 0.31340769742535224, -2.2942234346512236], [-2.148067384163194, -1.4346686538589435, -1.4693898772618084, -2.3174181403610525, -0.8803185602916404, -3.269577094490852], [0.6027709957776278, 0.22288772760992853, -0.8820309913644556, 0.2252756009158877, -4.010197667601772, -2.7619194934189277], [5.039682891929001, -0.3420320578580293, -0.7141885983167063, -0.9521075682937702, -0.6097044217481156, -2.38360056049699]], "biases": [[-1.1151889964432637, 0.2638952975690724, -0.5835268071520664, -0.14288450813877293, -0.45567328710136934, 0.39830400551300504]]}, "output_layer": {"weights": [[4.704719579528593], [-1.40654920484315], [-1.5276205928981272], [-2.4195909960376145], [-3.494603907573989], [-3.766812450898494]], "biases": [[0.8469441161490742]]}, "activation_function": "Sigmoid"}