{"layers": [{"weights": [[0.050000031713938194, 0.186468322957546, 0.09917971989170235, -0.11332632143307159, -0.7068824557157266, -1.6344900199850019], [0.08799479527090404, -0.06953546037883421, 0.2742301215756367, 0.7895536285444879, 0.20403898596992825, -1.0059038102949631], [-0.44914700979997824, 0.25942126140185034, 0.30127826816982045, 0.2571557755188042, -1.0379343518756086, -1.4810829260250218], [0.1932684528908267, -0.09403730146127078, 0.3862357668338056, 0.16102394014975893, 0.42005621414018224, -0.6083297056688431], [-3.4990896899022697, 0.301524853238707, 0.0019533297072200756, 0.3205607090166448, -0.2192565648453529, -2.115994564153263], [-0.9256586183192762, -1.0809157995221792, -0.9519904948152225, -1.4922449473029409, -1.4243373830720472, -2.5510154635199846], [0.2692243734867467, -0.7893251525945064, -1.4076635453351263, -1.2982084103712563, -2.457936142639055, -2.555654061121543], [3.663227379067725, -0.8679357062793187, -0.9273377277762466, -1.2824724821801743, -2.016302990684302, -2.6388169064974427]], "biases": [[-0.9860512995544151, 0.23064075991603458, -0.0163933304460837, 0.3908796246280866, -0.4932647655500208, 0.28074771471078613]], "activation_function": "Sigmoid"}, {"weights": [[3.924996921291405], [-1.3936761403978688], [-1.7686185783019668], [-2.232191121911427], [-2.7197206803222844], [-3.546886397366529]], "biases": [[0.907088384182177]], "activation_function": "Sigmoid"}]}